-6.903224101407821056e-01
-2.433733059992437553e-01
-1.819958887197363984e+00
1.936042831310680334e+00
1.593060989855554777e+00
-2.001615445957740658e+00
1.304462372676324700e+00
7.501396455810231678e-02
-7.431429135402398134e-02
-1.171656008023277615e-02
-1.746610337230876775e+00
1.359014687055494219e+00
-1.158390998085047530e+00
-4.757451287070522117e-01
-4.210823550500398804e-01
-1.486323039560578207e+00
-2.202043344023533855e+00
-1.405137905339393534e+00
-7.979857306204879430e-01
1.020563159861694880e+00
1.500747479922045768e-01
-1.963938734317169921e+00
-3.864426973236440022e-01
-9.182491920791239215e-01
-8.493351305132829099e-02
-2.292762870152775523e-01
-1.691907099183598273e+00
5.609391994245252477e-02
7.428400096223972682e-01
-8.465970678930799798e-01
-9.951501564229247032e-01
1.496760450687296018e+00
-2.036018572833306006e+00
-8.541044552883678698e-01
7.932256367151790943e-01
-1.167165893771702434e+00
1.990262532118663649e-02
8.623451236915969931e-01
-1.901618939613925141e+00
6.123015988006436094e-01
4.204839990768832747e-01
-1.074948012316370161e+00
-9.376259483495842373e-01
-4.894902244857256002e-01
-1.449578556642342031e+00
2.001278985383177222e-01
3.122025179891271124e-02
-2.145542442852162335e+00
-9.518331597221245666e-01
-4.030901692769943423e-02
-1.072873977884782004e+00
-8.312364722185049404e-01
-1.538874320786364214e+00
-1.098683239701490510e+00
5.419173685897661352e-01
5.295134132232849344e-01
-1.272050850216941864e+00
-1.494068720828171770e+00
-3.989308038034987125e-01
-4.850877685260949340e-02
-8.773542650301536794e-01
-1.482318478476068124e+00
4.555680008647813861e-01
1.282156889354467699e-01
5.952784649418148000e-01
-5.597488103876478993e-01
-6.736070271017245703e-02
1.343269705266149305e+00
4.281464721912261462e-01
-1.107547665351546362e+00
7.966951235058854219e-02
1.443542901265164602e+00
-2.681121486463603487e-01
-1.352798163955007293e+00
9.508765773464533666e-01
-1.233298609431962678e+00
-8.754335633936165539e-01
7.565507231400390165e-01
-1.051570980837963853e+00
2.875867085235793708e-01
9.358683706338245534e-01
1.651052761928796242e-01
-4.969061598320813067e-01
3.172435594932761505e-01
2.146859749406439810e-01
-1.986159504779174134e-01
-6.158207884583782876e-01
1.527785915935232497e+00
-3.931130603311516203e-01
-2.830588526532107352e-01
2.012215601560921052e-01
-3.722634102011231905e-01
6.275725713678969031e-01
-3.370416907191063904e-01
-9.547035688320403279e-01
-4.714575064733741994e-01
-1.139160347466183554e+00
-1.064624666016968924e+00
-4.537229461035447442e-01
-5.888419852875895755e-01
-1.382465073476097928e+00
-2.624185191685950436e+00
-1.652843127223567965e+00
-2.825545048768674516e-01
-2.648741286646893456e-01
-1.310932178443291241e+00
-8.727134164070998734e-01
3.847089206298872077e-01
1.638301932981849410e-02
-1.025675189716520164e+00
-2.629443247512956439e-01
2.344434875653902406e+00
-1.032915675672532452e-01
-2.429554683792857217e-01
1.321330647993796514e+00
-2.139593418834705857e-02
-2.796528108583238303e-01
3.817026831487283500e-01
1.800121900921339613e+00
-9.861258534423944511e-01
-4.914938370845223781e-01
-6.135648609266438624e-01
5.457321324453155986e-01
1.064843251558564408e+00
-8.183480385441457283e-01
-5.163064370460889174e-01
1.445376355252163236e+00
-1.502000613660736450e+00
8.367680871612575011e-01
1.135651492883586355e+00
-2.101007975709866749e+00
8.167147898297719699e-01
1.485835060731675039e-01
-1.519825587689439761e+00
-9.966685441210376695e-01
-1.153246687850656649e+00
-4.360801167565493963e-01
-1.506471515166649233e+00
-1.221481718717429610e+00
-2.969962888344388485e+00
-8.385083545306113439e-01
-3.547935031002333317e-01
-7.227488418334006015e-01
-2.565101777146532314e+00
-1.865786115300037906e+00
-1.080937497064198283e+00
7.748470667949950430e-01
-1.749916240369329579e+00
-6.349100447957677362e-01
-9.099692170023343518e-01
-5.065771333192988779e-01
3.784522066874069224e-01
-6.955329377706924721e-01
-1.404138398798874476e+00
-1.248874508409551609e+00
-8.224428908181656839e-01
-1.070360150910162483e-01
-1.188151094821207066e+00
1.126612070516846975e+00
-3.185187062711392070e-01
-2.681514427228791630e-01
3.993496299019627660e-01
-2.391604664842063854e-01
-4.465564764654647023e-01
-9.986962978185827122e-01
1.381758467952589831e+00
-2.474071367289477852e+00
-1.140620305693900605e+00
8.594647577560701190e-01
-2.378298947803727081e+00
-6.865632223745764540e-01
7.017695752402577369e-01
-2.876890679324095590e-01
4.575686664228586498e-01
1.006605355068752455e-01
-2.081478738029109987e+00
8.384609816183759279e-02
-9.606973290369420493e-01
-1.020874110276152491e+00
5.619755764560334654e-01
-1.430298088462508499e+00
-6.176775085070372873e-01
-6.261831873014686023e-01
-1.307071102337507673e+00
1.122868474473438516e+00
-1.488038792181368475e+00
-9.409451766162016950e-01
4.316288704525937381e-01
6.254130764253914565e-01
-2.466565581088282055e+00
3.807064302658734189e-01
-1.873364007367787631e-01
5.038127752763582601e-01
5.635484922787578621e-02
1.091279245615510929e+00
1.451399926456348632e+00
9.458268694000419030e-01
-3.660695859112423345e-01
1.140745728390169189e+00
-8.446012281634315277e-01
-3.128857848404751341e-01
-8.136683717667588800e-01
-8.499437900682657587e-02
1.656915797645015731e+00
1.268651479348271160e-01
-5.076978549741005542e-02
1.435002063799747152e+00
1.138208642311983709e+00
1.652417459995712212e+00
-4.098761074668307303e-01
-5.843349064261950110e-01
-1.671889114099117946e-01
-1.103279146862189197e+00
1.999369784268136385e+00
-2.708023321266244121e-01
6.752878132555457658e-01
1.597289159060718333e+00
-2.146937577721042267e-01
9.850013537929690477e-01
1.766097197845456712e+00
-2.213036120145764618e-01
2.638621338158703811e+00
3.521571249286393757e-01
1.443213802759751863e+00
1.947668290225371912e+00
-1.869671329362675161e-01
2.327618842859727977e+00
3.932682835611693295e-01
-1.790905838090236513e+00
-2.716234002404108505e+00
9.528013657746839948e-01
9.212507348983920430e-01
1.753919337146932822e+00
-8.500328743734802961e-02
3.570039966557033151e-01
1.476004732895271676e+00
7.323438214143096481e-01
-6.703310015765530094e-01
4.236474855971069098e-01
8.382378585694002515e-01
7.075534916053715095e-01
1.312774877193980894e+00
1.433789300613869555e+00
-6.026403857169730927e-01
7.681748699858624851e-01
7.491719699566823376e-01
-8.478162157851294456e-01
-2.119225496438255085e-01
1.206117735626077714e+00
7.520666429513493956e-01
1.590710677359860326e-01
2.559595050942231609e+00
2.502323754140227674e-01
1.184376946485427712e-01
4.231339012367049790e+00
1.222396757639096165e+00
4.138040345110272078e-01
2.921432466032158004e+00
-1.583270551114268065e-01
1.383657466343777009e-01
3.297763243217298523e+00
1.600452420389513408e+00
2.274308186234831997e+00
3.078577217894350238e+00
2.793999437604415714e+00
-4.203864187653794660e-01
2.102817627582773685e+00
1.150046849563244544e+00
2.151992128668905213e+00
2.088328899960853136e+00
-1.413583186604007447e-01
9.424159618793988002e-01
2.426362191336663088e+00
4.978537507575871851e-02
-2.434053430859319800e-01
1.950952748903127532e+00
-4.948863784684666700e-01
-5.699098980867630670e-01
1.177255268060377169e+00
2.491073337137238219e+00
1.553413193068707288e-01
5.861088436631547438e-01
2.014372184412946520e+00
6.974655982524157194e-01
4.719775275832537864e-01
-1.514701090735970146e+00
2.346567030603249115e+00
1.011822118167436280e+00
2.736379223865331500e+00
1.675400728710205067e+00
1.341390971875599636e+00
5.322617867704438899e-01
3.379501016526612611e-01
1.168157969030160448e+00
4.714349325295059678e-01
-8.132026437848243194e-01
2.118737393908778355e+00
2.326112746721340496e+00
-4.001447454705966411e-01
1.901199041636100651e+00
9.659244640425080908e-01
-4.830133234557467542e-02
2.342669293746090009e+00
6.803851000297446161e-01
-1.352263484054976872e-01
1.405653227183132126e+00
2.428466887155653342e-01
-1.429905480782128757e+00
2.459634839344676749e+00
-9.438825263239515595e-02
-1.025381083912361824e+00
1.659142359900553476e+00
-1.318593646644188766e+00
-3.575803717869160958e-01
1.706007912365578028e+00
-7.946761564444684289e-01
8.641840177708995929e-01
1.117899318623547078e+00
7.853437381560732788e-01
1.263415432268594873e+00
1.745401711262563493e+00
-4.365395950174305595e-02
-2.265609864348538116e-01
7.955751012741604233e-01
1.113221035905233913e+00
-2.220541624850601026e-01
3.468699471538320145e-01
2.123131629096302930e+00
-2.314549738918840471e-01
4.099837169150463700e-02
-3.779190971051042403e-01
1.264881162559921002e+00
-7.858005682618403043e-01
-1.861378998129372908e+00
-7.057248164184068973e-01
9.818782477666383457e-01
7.411531949092471372e-01
2.286946980771306315e+00
-6.711593011474289439e-01
1.502217878945910856e+00
1.949372473929632088e+00
2.609670124612900044e-01
7.279425625838211733e-01
8.753894452074537091e-02
1.133153495482666084e+00
1.418983666282920553e-01
1.183536695069929312e+00
7.080672463252873916e-01
1.167726991810108972e+00
1.068107627510560820e-01
1.272571738209075987e+00
-1.014175835463956732e+00
2.368801394024293017e-01
1.184737967613311405e+00
9.541404250842981660e-02
1.684104269203895221e+00
-9.065134250736361227e-03
-9.628637009693132853e-01
3.106154009925962342e-02
9.790159455046760772e-01
-1.212788405876968234e+00
9.893605294526138794e-01
1.729059296681779934e+00
2.896968120277372827e-01
2.849656785410075610e+00
8.615718645968550859e-01
5.388676725685775243e-02
2.871881796089267969e+00
7.276333898806571776e-01
-6.555150802835296719e-02
1.321213476433167111e+00
7.225476972962052713e-01
7.711428700617997123e-01
-3.498793474766270228e-01
1.674914511043326559e+00
2.267270313446525076e+00
7.627649917208673136e-02
6.301678178733965963e-01
1.064848463550833957e+00
2.904434923166787641e+00
-2.104582966784930953e+00
2.377409072705755910e-01
1.786078163101811889e+00
-3.005643469664260881e+00
3.710916534229612984e-01
-1.302966116388307061e+00
8.159405790629277455e-02
-5.801119592726046159e-01
2.583193653693230285e+00
-2.538065890845626060e-01
-7.692152842489610176e-01
9.809352211702576652e-01
3.240811532444068943e-01
1.055095352723322888e+00
2.068757604321552090e+00
6.718320433243790690e-01
4.192459389564106020e-01
2.261008627598298126e+00
1.915324732806873986e-01
-8.578041203056320230e-01
1.525755428607657338e+00
-9.246902103304213694e-03
1.444793402095801982e+00
1.786321290815445550e+00
-1.142509212652979889e+00
-1.072319961654929904e-01
1.131334673103354449e+00
6.766395686398901654e-02
4.415750319063154739e-01
1.502109011674451766e+00
6.760995057016951915e-01
9.874117004956423083e-01
2.200322608978822370e+00
7.334781392915940001e-01
-7.727958029363909409e-01
1.214615320864262271e+00
1.277815413974525693e+00
-3.908160587716186241e-02
1.787283945864889256e+00
1.525049344328589296e+00
-3.579181003117293813e-01
-8.925832305538852762e-02
2.018771858102714686e-02
-3.587437641668117516e-02
1.609356543797266337e+00
4.451008592723710855e-01
-1.879687131522363996e+00
1.739662719920481937e+00
4.277295738408898318e-01
-1.923477661719916743e+00
5.552053754604296953e-02
-1.352659150653387155e+00
1.743349778144255291e+00
1.725977724235276733e+00
2.043778057812056792e-01
-1.465090601086817879e+00
8.226379573415063540e-01
1.150069998041498703e-01
-1.813641916304732371e-01
6.650119668000379347e-01
-7.014364952038428802e-01
1.266340802990084446e+00
1.139947468069546499e+00
-4.535982918071523873e-02
-2.398381828694345241e+00
-3.060345857780254891e-02
3.429365409292176592e-01
-3.280290795642539226e-01
-1.350056552053467973e+00
6.158668384502937743e-01
-1.025002714464375853e-01
1.619092657476051134e+00
-8.280476679245069027e-02
-1.128574434107744606e+00
-9.706456555498280681e-01
2.141339114652630382e+00
1.786708425378714660e+00
1.560354132518168679e+00
1.602321548313620170e+00
1.607291115143535620e+00
-6.518501383012044459e-02
2.671791375506672672e+00
2.798316352149598021e-02
6.376555175917670848e-01
1.839601234652229689e+00
6.229606581629700823e-01
6.076348478482546112e-01
2.366919209192599460e+00
-2.447745564020393227e-01
-3.471900041875928267e-01
2.415164334341129315e+00
-1.784247787000369456e+00
1.319568462856357316e+00
1.563101905241213618e+00
-3.317300355868019412e+00
1.790594696914380890e+00
-4.380094276973769407e-01
1.320378352671045308e+00
3.422082268762049129e+00
-3.221493269570991025e+00
3.153529774783632611e+00
1.930206128296237722e+00
-1.331443922300668437e+00
-2.167345956677128704e+00
2.078554185763274109e+00
-5.310597140793616999e-01
-2.157406197058428177e+00
-2.421662037637322129e+00
8.627675845505207164e-01
-2.094878166092802640e+00
-5.648274473041141608e-01
-1.467839720562835737e+00
-3.373031195769761847e+00
-1.560520579930092744e+00
1.593327271148085478e+00
-1.967479821146632890e+00
3.803412733715985095e-01
-6.521911936403296250e-01
-1.785148207495034223e+00
6.127924644556700245e-02
1.467629941560039564e+00
-1.894969085649116369e+00
3.321196427859134381e-01
1.859262978484854001e+00
-2.483911794829737063e-01
-3.496026061049558042e-01
1.844404018610672047e+00
-8.201353534233390974e-02
-2.701785512924807620e+00
1.776152454438872041e+00
1.661809642870243076e-01
8.127577644758804398e-01
1.453865309071724177e+00
3.268695705857680989e-01
-4.305714712191969218e-01
1.963741265152214366e+00
6.922521581839559124e-01
1.779637416672029904e+00
2.118716000693328105e-01
-3.159509098288033169e+00
1.384608002016225692e+00
-4.834052576095234643e-01
-3.822767120665652829e+00
1.599136974228074548e+00
-1.467194076419860105e+00
5.465133556064929454e-01
1.326147445582373186e+00
-1.458066689140595784e+00
2.099312032258293659e+00
1.511787531304719767e+00
-1.889208514495439140e+00
-1.267550577667253986e+00
-5.295963186467077533e-01
-1.001987710152955513e+00
-2.227855795581278997e+00
-2.053060353025662810e+00
-1.434414775247651319e-01
-1.801316489565903955e+00
-8.566493578499063677e-01
4.740464776339600173e-01
-1.831778395418093508e+00
8.926175424286222210e-03
1.422776257859958982e+00
-2.536140721111372009e+00
-1.156216952900937400e+00
-2.547658237970522599e-01
-1.889075620152053991e+00
-3.790064293549663788e+00
2.170384753364166031e+00
-1.379690234234318469e+00
6.314388614291162050e-01
5.661532709959100629e-01
4.623211267221261078e-02
-2.309819530117070419e-01
-7.321249662566529093e-01
1.287787746058323801e+00
9.473587083494672267e-01
5.193034573899589779e-01
1.100095978652046336e+00
-5.790683051812604010e-01
8.195203283317290532e-01
8.800959602057151221e-01
-8.872114816176228658e-01
-2.225249971908861424e-01
-5.716059810431989296e-01
-4.986104404615341323e-01
6.224863645572884518e-01
-2.251974569754855438e+00
6.178403745127364344e-01
5.611772303984620125e-01
-3.225557912659332338e+00
-5.092705190919488700e-01
1.010643488508333299e+00
1.478482932422619189e+00
4.697523733771100662e-01
-1.626554630967244286e+00
8.018177768877378098e-01
-9.093160628651979493e-01
-3.731377351532976783e-01
-1.417301501826440324e+00
-2.019226328358640909e+00
3.002274758227360119e-01
-7.233284366219814299e-01
-2.406130388400808062e+00
-4.260193125240782086e-01
4.914305603278280588e-01
-5.324322233030727158e-01
-1.677743859023126172e+00
-8.969575275966165107e-01
2.929796128938237376e-01
-5.406862997316742338e-03
-2.016929755895150222e+00
5.765050270359387552e-01
-1.000695714006316850e+00
1.706497472788403025e-01
-1.131409872233780367e-01
-4.862363106570541937e-01
-1.265688874001168918e+00
-2.316319933398236497e-01
-9.433658328783388614e-01
-7.396823080228045466e-01
7.088960852848905647e-01
-1.069234891014415600e-01
-4.490385511123695661e-01
1.421965735952299692e+00
-2.169487356854595539e-01
-3.302113534177127385e-01
6.010860521905169174e-01
-2.456609931906135122e-02
3.299883079099147909e-01
-7.067112584353211213e-01
-1.566591699711460395e+00
2.954376193010139762e-01
1.825095745188640484e+00
-1.991919626963190471e+00
4.014692201375049674e-01
2.411212270022300343e-03
2.459434400737415261e-01
1.014530752058050017e-01
-5.524553638618867613e-01
-2.012734570111096230e-02
-1.291741730727323789e-01
-3.279299154375517666e+00
1.773048046611843231e+00
1.725095172586075032e+00
-1.205871869948061725e+00
6.116335598434927689e-01
-1.424345268675247800e+00
-1.100875961097031341e+00
9.419591412986113577e-01
-9.752738214789000715e-01
8.214929463641533758e-01
-1.381038805471870856e-02
3.424416494867934535e-01
2.179750105746461220e+00
2.998521320468114371e-01
9.476676911990272734e-01
1.407219635360386745e+00
-4.264994329844404297e-02
-7.856194689864195446e-01
3.612502238403226595e+00
-2.088268044123450448e-02
-1.661581226534503353e+00
1.608726998771659478e+00
-7.062336970939896430e-01
-2.374093012570420935e+00
5.962578816974207774e-01
9.336568117051121662e-01
1.667313042970136605e-01
3.481256553465044146e-01
-1.683696610544466177e-01
9.886212564678840131e-01
-2.628029277883853210e-01
-1.249576286924972468e+00
-6.845929888597402924e-01
1.645965875033158055e+00
-2.794603147643892616e-01
1.303922262250931219e+00
2.183247099656222545e-01
-1.712747796232547470e+00
7.710214873311812545e-01
-5.659261857448651956e-01
1.041624238805934244e+00
-2.463671034005230909e-01
-1.201318005029300418e+00
1.563199468198511299e+00
-9.164223905619599542e-01
-7.998755103255184018e-01
-4.395147810348153383e-01
7.875523192802316164e-01
-1.364078053242968380e+00
-1.795270612050072767e+00
2.221439598453150310e+00
6.425584721031684099e-01
-1.750560433428005824e+00
-2.104875732445247838e+00
1.089363113920810144e-01
-3.268699613009011795e-01
-2.319748421839156638e+00
2.668424266840607184e-01
1.593893988876224244e+00
-1.348703268730730320e+00
9.705450896814415973e-01
6.410485464079558326e-01
-1.252441806094944710e+00
-6.968586192121988265e-01
-9.204197076213514739e-02
-3.440540791950891242e-01
-1.985890582521624426e+00
-4.350164921328457668e-01
-1.184468201600484161e+00
-1.035200860628133990e+00
-1.583017171867963757e+00
-1.517591009913983546e+00
8.861134051934829170e-01
-3.886024399070518998e-01
-1.846195928927034435e+00
4.584410084831349597e-01
-7.027546846740767572e-01
-1.903538181854848022e+00
7.127504382199225663e-01
-1.918234150196841403e+00
-2.520990551206496733e+00
1.195740424781112088e+00
-1.192561041276169354e+00
-1.381923633836546594e+00
-8.247625925046249140e-01
2.318242377436373625e-01
-1.780103630592796859e+00
-1.454660461239841052e+00
1.282558528390061792e+00
-1.602103366278138319e+00
-1.645478967831245587e+00
2.632993449804327257e-01
-7.034292362201446380e-01
-4.324161083653177973e-01
-2.233020983299078555e-01
1.534802815033493362e+00
-2.551436214443627559e+00
4.808286971797254977e-02
1.869498999090491331e+00
-1.758475090517408690e+00
-1.504463241672899902e-02
1.190951692998802880e+00
1.083946308733197972e+00
-1.730881590496016198e+00
9.687478531993611863e-01
1.356265957205060158e+00
-1.501741435932727686e+00
7.842912851520101869e-01
1.603393833947471814e+00
-1.850912258546332678e+00
-4.067422245843519413e-01
-1.188879088636423331e+00
4.374473356241792010e-01
-1.878925133971699191e-01
3.628566821539073728e-01
-1.427050510303631503e+00
-9.988582154720087036e-01
1.158238683810584257e+00
-1.353172015969879571e-01
-1.899411571536679721e+00
1.284127728737448182e+00
9.800788935326794071e-01
-6.489598787356362086e-01
-5.518857092913100754e-02
-1.126472623225064806e+00
-3.758375323335549911e-01
-9.625979928153060028e-01
1.342551705849491517e-01
-6.217522133277676444e-01
-1.354504991036482586e+00
6.912397629748051608e-02
7.109818706570648628e-01
-1.101537005679658066e+00
5.926317392977314968e-01
4.665337570115178911e-01
-1.676328842993788149e+00
8.172156796255076738e-01
1.433779070493650165e+00
-1.185208751254862442e-01
-1.933597451719535065e-01
2.488841517039866780e+00
5.486296646519941422e-01
-2.309864624185675730e-01
3.377224779557612244e+00
-1.286985194716038228e+00
-4.419787221416768830e-01
0.000000000000000000e+00
0.000000000000000000e+00
0.000000000000000000e+00
0.000000000000000000e+00
0.000000000000000000e+00
0.000000000000000000e+00
0.000000000000000000e+00
0.000000000000000000e+00
0.000000000000000000e+00
0.000000000000000000e+00
0.000000000000000000e+00
0.000000000000000000e+00
0.000000000000000000e+00
0.000000000000000000e+00
0.000000000000000000e+00
0.000000000000000000e+00
0.000000000000000000e+00
0.000000000000000000e+00
0.000000000000000000e+00
0.000000000000000000e+00
0.000000000000000000e+00
0.000000000000000000e+00
0.000000000000000000e+00
0.000000000000000000e+00
0.000000000000000000e+00
0.000000000000000000e+00
0.000000000000000000e+00
0.000000000000000000e+00
0.000000000000000000e+00
0.000000000000000000e+00
0.000000000000000000e+00
0.000000000000000000e+00
0.000000000000000000e+00
0.000000000000000000e+00
0.000000000000000000e+00
0.000000000000000000e+00
0.000000000000000000e+00
0.000000000000000000e+00
0.000000000000000000e+00
0.000000000000000000e+00
0.000000000000000000e+00
0.000000000000000000e+00
0.000000000000000000e+00
0.000000000000000000e+00
0.000000000000000000e+00
0.000000000000000000e+00
0.000000000000000000e+00
0.000000000000000000e+00
0.000000000000000000e+00
4.705261804834706574e+00
8.223929184846511475e+00
5.058621132700335643e+00
4.958640503163003754e-01
-2.160315285540320041e+00
2.721841669021032306e+00
7.168223586984997509e-01
-2.655584551421709683e-01
-2.390367529274761260e+00
-2.736885919055217276e+00
-1.210945930875674037e+00
2.407169184481445789e+00
3.542029727423030572e-01
-6.863942477346539617e-01
1.745417230407453113e+00
2.347637846452118815e+00
2.538636957974337083e+00
6.115919038187541013e+00
3.931597495098252626e+00
-1.407965116646742620e+00
-1.979326352682004186e+00
6.236334038798229118e-01
-2.878594480356508889e+00
7.266449882103535041e-01
-1.050233125628525332e+00
2.078862550023055533e+00
1.703665554156549300e+00
1.385355065863126844e+00
-3.064432025752339417e+00
2.045728500486026835e+00
3.421408039210560137e+00
2.926754415726536274e-01
-2.005361126459455079e+00
-1.625954730655608582e+00
2.286132996446723187e+00
3.120951722483065627e+00
1.356792595003092905e-01
2.251816374021387901e+00
-4.004438637202443196e-01
-2.962056513703150706e+00
-2.083704204168468355e+00
8.831602668380259535e-01
3.330087570337251890e+00
6.672169632204106859e-01
-1.715519255101770835e+00
3.253817776108737014e+00
5.055918760545757173e+00
5.245469592352328903e+00
2.725210346355751767e+00
5.824151456875656940e+00
3.098870387383954039e+00
2.520698779835902403e+00
3.948537669178007636e+00
1.498667176355719111e+00
-2.633558861709324739e-01
3.356567500503393475e-01
-4.473425991975824717e-02
-1.956504586627871412e+00
-1.053654357441607736e+00
-1.356577544563199789e+00
4.666105565743557948e-01
3.422795295682555583e+00
1.044691701066412515e+00
-3.180635937283521897e-01
3.537929895487954002e-01
6.470660367293949555e+00
4.180167024283247379e+00
-8.870327471756885851e-01
-1.164129628729787758e+00
1.109299196207404713e-02
-1.485554434606005447e+00
-1.790008369981337111e-01
-4.831608795573490156e-02
6.435867575915346084e-01
3.163722564153978567e+00
-1.726527232892723251e+00
-3.464436962267892106e+00
2.984484804780897615e+00
4.511260073138682714e+00
5.180267161806993981e-01
-1.395124813942964836e+00
-2.571730897093647883e+00
-4.042073505146007162e-01
9.943205055197301689e-01
1.192914050306826734e+00
-1.556986114181105663e+00
-4.393729775618832045e-01
1.329915122427509019e-02
-1.843265231688940853e+00
-1.935826577534506709e+00
1.870390140260066225e+00
2.696708340517172342e+00
1.812895758692988135e+00
2.141950856910152634e+00
1.026166811128789380e+00
2.696603159102744396e+00
5.019157000250679346e+00
1.022591135641344184e+00
-1.783093390432460401e+00
-1.513290223043025629e+00
-4.589008708117355617e+00
6.531346389892240811e-01
8.231646371671174078e-01
6.157410687517322900e-01
1.512289682921573064e+00
1.758508168885324130e+00
1.327304315639850518e+00
2.068800409645995320e+00
-1.180271167179202996e+00
5.761067886808605154e-01
-1.919914905769365188e+00
-1.913744882581525086e+00
-4.426422434652558024e+00
3.443817234402306582e+00
6.322108573355929906e+00
-2.105359882932706039e+00
-3.073531447770231129e+00
-4.735420189084629250e+00
1.753357493991583915e+00
1.434981461087325050e+00
-1.368057781563606357e+00
2.783944603137985752e+00
-1.394845134280515930e+00
-2.624383708159493178e+00
-5.907109898754317356e+00
5.797143584552586937e+00
5.264675649562512660e+00
-1.157908956528265643e+00
-2.509937595832048451e+00
1.298347529249663790e-01
-5.532353857007621389e-01
2.324028632075866074e+00
1.968991727393864410e+00
3.071798000857826505e+00
5.096102289451582834e-01
2.062337198765769042e-01
-1.601792810568994030e+00
1.889814076570772938e+00
1.151769077360938365e+00
-2.508080351698814603e+00
-1.303380747350962654e+00
-1.085452656602756027e+00
3.773729961624328610e-01
3.716364915571672256e+00
6.706217145366554222e-01
2.149191219707132117e+00
-2.491798925027341571e+00
-1.740886344453461909e+00
-4.139741604159112853e+00
1.452115907869619305e+00
6.361007412352896573e+00
4.796420515235039761e-01
-2.326010135608792329e+00
-1.196966225916987092e+00
-1.811453286658694539e+00
1.817167088700646804e+00
-3.649447474362078198e-02
8.752757199126135479e-01
-3.713333545667399704e+00
-4.178350184647880106e+00
-1.268939611919862154e+00
7.280586931248302029e+00
9.907404555047298444e+00
-1.804324371233919422e+00
-4.288778313656676389e+00
-4.280811900618869181e+00
-1.547924235356680889e+00
-1.282226414509358703e-01
-6.662036639800733573e-01
-4.088854003529638348e+00
1.381792528088956473e+00
-1.166324720654253966e+00
-3.698982597438195796e+00
9.421774908602692733e+00
8.235040511170529598e+00
-2.230943406597606593e+00
-7.398229223206217453e-01
-2.570933044449703164e+00
-1.202693505698360754e+00
7.087989611352703001e-01
5.247929653238336128e-02
1.498567924363531922e-01
1.891699828265359429e+00
3.494373739141397817e+00
7.062167986226727256e-01
4.716900622991799352e+00
2.499136689724701821e+00
-3.950213899701712439e+00
-3.778977012031961902e+00
-4.821739447750432284e+00
-2.422504101303422974e+00
2.795374713691394675e+00
-2.129589580586332076e+00
1.786755082958025598e-01
1.363031894024250068e+00
-8.266096525342898627e-01
-2.449786475058135238e-01
2.273209151458353006e+00
-1.535957261525698003e+00
-3.271352548455446763e-01
2.402264150044753355e-01
-1.112002595322476806e+00
5.098597988807241910e-01
9.710330061626549769e-01
-3.959703518753515006e+00
1.444036269054814081e+00
-2.729920145797334885e-01
-1.330937260756299034e+00
8.917458138912361942e-01
3.840201873863907434e+00
-4.019732924454036405e-01
-5.407754493484980829e-01
-1.307086521533459944e+00
4.282398175983757882e-02
9.961850034873507287e-01
-1.312488261090406505e-01
-3.166848902161001345e+00
4.141278684848810898e-01
-9.891401930610579374e-01
-1.365375043690225221e+00
1.551487253846959069e+00
3.532073169937487656e+00
-1.443114921664325312e+00
-3.449223998556633752e+00
5.502848403133177024e-01
-1.434323523001519662e+00
-9.010114637564531348e-01
2.404040643763087903e+00
-1.241309896470692786e+00
1.533486717644609421e+00
-1.923476215875384865e-01
-1.830368485507102516e+00
2.030904351318814971e+00
1.949833992901111257e+00
-2.454068073473071099e+00
-2.214139801516858519e+00
-1.115578213596289947e+00
-1.637476979096310625e+00
1.999094642597739391e+00
1.561535278527425241e+00
1.842211921529222529e+00
3.957432844067346522e+00
4.776678798410236126e+00
-2.338037719299866368e-01
1.123312165605905744e+00
2.507493813682813322e+00
-9.819637453826968176e-01
1.958709299682263483e+00
1.369709384843756927e+00
8.725204654680978056e-01
1.370542882256465589e+00
3.559458557220587238e+00
-1.692924881581981733e+00
-2.429616414618768483e-01
8.785957924195204605e-01
-1.194954022120771508e+00
-3.248884687148259065e-01
3.265761541307137694e+00
-2.926864882474645491e+00
2.142678910793249791e-01
-1.101545642979892881e+00
-6.231091236698547142e-01
-9.974883927270074002e-01
2.702528309778809756e+00
-1.332280896796510516e+00
3.252329474289874955e+00
3.209803352754060146e+00
-1.083655471777471790e+00
1.683915955036702661e+00
3.764429948921759639e+00
-3.114229725077272803e+00
-1.537490235417659834e+00
-8.638006207168262840e-01
3.350283425071839627e+00
1.164894580520567713e+00
4.308112981759667726e+00
-1.348057421815510581e+00
-8.330067823547400163e-01
9.762348246342697489e-02
-9.931103399577452251e-01
-1.156772417710800471e-01
5.473633692770360604e+00
-2.213909862085532421e+00
1.438566513360398424e+00
2.748790012869074761e+00
2.525492770339169191e+00
3.021751273660905568e+00
4.470156604682197887e+00
-3.003869436502331514e+00
6.739133892911869372e-01
1.614630671871927881e+00
-1.460292210675928404e+00
-2.132504321379798728e+00
2.304859774431293307e+00
-5.408884669354375951e+00
-1.569779002317837957e+00
3.545655590196384321e-01
-7.288351515068629549e-01
9.246817117456447299e-01
2.902503597449486605e+00
-3.115607195777113425e+00
1.286900745112289357e-01
-5.712129755764320249e-01
-1.989190911640481785e+00
9.023772342337723629e-01
2.727334542164473685e+00
-2.139627254943052836e+00
-1.199650623256951071e-01
-3.833403560086738882e-01
-6.916573911531689878e-02
-7.968619448394796967e-01
3.356325614000851054e+00
-2.214721212620559765e+00
-2.287292219761702494e+00
-1.243377961194301884e+00
-5.675072946816754893e-01
-7.239476181352292317e-01
2.242348364803685268e+00
-1.382975220060327803e+00
2.610512501634743021e+00
1.448527826800690033e+00
-2.527494553597325222e+00
-8.906557597415415417e-01
2.195387960387570114e+00
-2.255212435149159145e+00
-6.254386091967663042e-01
-5.576088193675166060e-01
-2.738707843813595222e+00
1.153759669974760538e+00
2.305080941067950029e+00
-3.690499255328329564e+00
-4.430586907953483755e-01
5.274116730924128804e-01
1.136711708449220426e+00
4.290279368390497727e-01
2.986884412945477241e+00
-2.446638362314808468e+00
1.815690291642223064e+00
-1.941789634940082498e+00
-1.887249334182633520e-01
-1.395030519250159973e+00
1.780629473850727340e+00
-5.761094081700759872e+00
7.445704378102724341e-01
-1.472011616133125811e+00
-1.442526706964747829e+00
-6.313378011744846807e-01
2.371377629801626696e+00
-4.777302419890815166e+00
-6.483637556049497430e-01
-6.706730526355328958e-01
-4.184852345092499037e-01
-1.799648723098256742e+00
2.257693249191044416e+00
-4.537160684173639602e+00
1.130917029018227105e+00
6.166684404657136742e-01
5.623622125468465960e-01
1.159021728848260227e-02
-9.400619966063921140e-01
-4.688856039854879754e+00
-2.077100381142560348e+00
1.464708423016344740e+00
-2.009841480509860112e+00
-2.723365505102774975e+00
1.536864758970913236e+00
-4.864090235019488340e+00
-1.077277549201548279e+00
6.032519034509180589e-01
-2.544788756350888193e+00
2.235047935226024407e+00
1.899540028039701234e+00
-4.094574591480217407e+00
-1.101996725462742299e+00
-2.691797307384301008e-01
-2.973113245220528889e+00
-1.386659321420181223e+00
2.336211424935175529e+00
-5.260272459451052818e+00
-6.838958218456134830e-01
8.034304742006410649e-01
-1.355903684159055267e+00
2.996140516210333282e-01
3.525343594228299349e+00
-5.469717404206111411e-01
4.549813628074488858e-01
-9.388957342735232414e-01
1.743491715708374690e+00
-2.420170390102916180e-01
3.283177116792900030e+00
3.398704420296828066e-01
1.578813623193306537e+00
5.295865720393324594e-01
8.013045239627715477e-02
-1.991495902183793243e+00
1.911353523296110524e+00
-8.515741662693079861e-02
1.183614447011465343e+00
4.913533743354687178e-01
-1.032261545921372842e-01
2.382460537739915285e+00
3.094428800150565095e+00
-1.889275236849403017e+00
3.237553488443771332e+00
3.275551818928644221e-01
-2.788276029638810716e+00
1.468877350801618853e+00
3.326938698447821974e+00
-5.942777834379564528e-01
-2.236574668797106202e+00
-2.366968641379816773e+00
-5.097712244884836652e-01
-2.212280825215823477e+00
4.942592653814429582e+00
4.106648424469295233e-01
2.325653523584218618e+00
4.408830902629919279e+00
8.657301883259144182e-02
-4.046542275758053808e-01
1.934781369413941965e+00
-7.507172705631479648e-01
3.428480189948174828e-01
-9.608873225199225931e-01
-1.328486229053530643e+00
-2.305528894280466368e-01
2.765875922225057959e+00
3.427023178030239148e+00
4.107695827789664023e+00
3.404997294422036802e+00
3.162342507813436399e+00
3.025756304962549326e+00
1.073892165524667597e+00
-1.250339824381775378e-01
2.012723485126072465e+00
8.006632714455699240e-01
1.987755885125052302e+00
-5.413335397936738236e-01
-8.508578952972670750e-01
-1.278342931215568523e+00
1.791663974034644280e+00
5.070294294995805195e-01
1.415104489162388388e-02
1.435617663230963070e-01
1.338519693287541390e+00
-1.039831890882121135e+00
1.863344226590313069e+00
1.567596274760952202e+00
-2.930704320762829718e-01
-2.962239112160200971e-01
5.330390016926727981e+00
6.926589336624990878e-01
2.442228072654730298e+00
1.323943189057579906e+00
5.912737126923962583e-01
5.090665394968348911e-01
4.959336752559396544e+00
-1.180377767272801526e+00
1.581114345163856238e-01
-4.495304984264080206e-01
-8.987567621523746553e-01
-1.011857235835380342e+00
4.020272440852478368e+00
2.847245353456886008e+00
-2.971764820829450940e-02
2.309972665345911391e+00
-6.260322356046955639e-01
1.844029538084067443e+00
2.459296487264356568e+00
9.010864768725850016e-02
-1.395825247002384417e+00
1.887515647318582568e+00
3.584222662753288269e+00
5.370005965474654586e-01
1.122972207264212097e+00
-8.071935749788672343e-01
3.512535202690983294e+00
2.155623395264444131e+00
-1.664224839419262691e+00
5.429498050737281423e-01
2.553100210431771711e+00
-1.178121488093949870e-01
-3.692010300963199237e-02
3.485897948310452854e+00
-1.279266670152875651e+00
-1.613992352836297606e+00
2.987221855917809865e+00
-5.898240233217043604e-01
6.069195739182622340e-01
1.567744145408915601e+00
-1.792193266554531261e+00
3.597114630484803399e-01
2.767533364960521158e+00
-1.563917901427379093e-03
-6.635277284844748324e-01
2.335222955836677716e+00
-4.787296924738969339e-02
-8.614773590884771126e-01
4.642455614080772008e+00
9.291868994567223372e-02
2.134671693922760571e-01
-2.081910799857557226e+00
-6.793472890051237556e-01
1.973509622923766138e-01
3.529429799842609849e+00
-2.556876572514064083e+00
1.940094031836788302e+00
-8.425604527232783969e-01
3.252017394478078915e-01
-1.172144473158474032e+00
4.570031866266162979e+00
4.024399891886282221e-01
-3.852380224630107958e-02
-4.731689992013910495e-01
-1.943663064688103015e+00
-8.023931987590715575e-01
3.772880176394485030e+00
2.574470324747368810e+00
2.348549054687749660e+00
2.317354737281054344e+00
5.408988782655119731e-01
-1.236318782780156056e+00
2.600140861746472076e+00
-1.196060491355438460e+00
-1.840183155069014809e-01
1.983475679117495671e+00
1.555624842649762918e-01
8.004234197262941608e-01
2.624572896062096206e+00
-2.142808663252741663e+00
1.101716820155878462e+00
3.030913929783674909e+00
1.949405280364005510e-01
6.177483201515719946e-01
3.076740250053063175e+00
-2.486026353015297286e+00
3.868979304273026276e+00
3.388800962456584021e+00
4.485906898616483507e-01
-1.469655347077933882e+00
-7.828445319698588978e-02
-4.914712573155991748e+00
2.235961278801167573e+00
2.631670884727974613e+00
-3.832733099527543263e-01
-2.795088752659809495e-01
4.146281460617752934e+00
3.363654854849691678e-02
5.146505117865840084e+00
4.298327308131797864e+00
1.089782434267008160e+00
-1.308735118921626195e-01
1.641246003965228517e-01
-2.951860803548936651e+00
2.343679319604885958e+00
-2.030901064536648204e-01
7.939708392838369377e-01
-6.726481438039865202e-01
3.512376800515697894e+00
-1.000409957263542760e+00
1.337129184501876455e+00
-5.456980458890612340e-01
3.021665075709171422e+00
2.625756872239973116e+00
5.537486289230150183e-01
-5.397467744122671496e-01
1.641012980301464808e+00
2.650012802763178410e+00
1.568658054765025511e+00
1.823888921637484950e+00
3.001536246105595662e+00
-1.743771284690923018e+00
1.314489050631743261e+00
5.041520922735458488e-01
1.350629586647212221e+00
-4.623250956354259533e-01
2.864417323292233752e-01
