-5.559669905694216929e+00
2.121463573327960983e+00
2.993200476000394961e+00
2.291766728957986388e+00
4.383127845163171110e-01
-3.751830453294243695e-01
5.609841945277193043e-01
-4.807290869808043543e-01
-1.205411436393246882e+00
-9.221514487119450987e-01
-1.040754246725676513e+00
-7.514889429561429912e-01
5.055421419432317709e-01
1.456524404630402392e-01
7.199425025737479222e-01
3.702143423298807634e-01
5.894586239049754983e-01
-2.863888474243012627e-01
2.616693284965867505e+00
9.827015090679640519e-01
-7.602423697176434736e-01
-1.200668013691449820e+00
-1.010885696032872483e+00
-8.935208173665060150e-01
7.271268006004660833e-01
2.778285317617775196e-01
3.506068676168140885e-01
9.535362460986665512e-02
2.310974613267995637e-01
-5.219948485281001860e-01
1.153492335150196446e+00
2.831264284383953722e+00
-4.675128716457727651e-01
-9.462424009832344218e-01
-5.759080292594401795e-01
3.399598839585570853e-01
1.372507868545878029e+00
8.008779848046230221e-01
-4.983360810271209584e-01
-2.899601764838931062e-01
-4.011048100779022185e-01
-1.041644403961071053e+00
-9.042900593247761576e-02
1.095423421454055690e+00
-6.601645327426976240e-02
3.541666041785240249e-01
1.985598278077409962e+00
1.762777844816057149e+00
1.631866391507623248e+00
1.366820965100489227e+00
2.781651519262238192e+00
2.112649263836392510e+00
1.840197662678211943e+00
1.186693545079793966e+00
5.217805506875411448e-01
4.848662764855978247e-01
-2.222886587438205330e-01
-4.410901291636020183e-01
-6.538411955740182080e-01
-4.763790445252854000e-01
-3.590453420190568568e-01
1.366925047789986802e+00
1.183473283949731503e+00
5.099212456422780315e-01
1.160361922796725523e-02
-2.804079639752325437e-01
2.434285878784531398e+00
1.518862939308604609e+00
-7.331348962068021669e-01
-9.903003483702393916e-01
-5.328468668438903766e-01
-6.052683411948605041e-01
-4.824821516006640859e-02
-5.288641136070918458e-01
-7.200427233317209241e-01
-2.724840833590469469e-01
-1.108415192563608098e+00
-1.601187716506326408e+00
2.874401300417843697e-01
1.886620796122061350e+00
-6.730724163238466229e-01
-2.663713693676406646e-01
-3.377347843065345856e-01
7.199826394878825475e-01
3.066369609137458152e-01
1.301495377710616130e-01
-4.006453666746980224e-01
-3.120651926523341224e-01
-4.534152430190332983e-01
-7.925483183685065880e-01
-9.362743412799351406e-01
4.310913874190018813e-01
8.994010087807299270e-01
1.561637847280880509e+00
2.033129026505871462e+00
1.532145682515530849e+00
1.025474958471354059e+00
2.651408038930707534e+00
7.745356868343368228e-01
-5.226731790131114996e-01
-6.349062066482699107e-01
-1.967781005277217110e+00
-3.477086269870980351e-01
1.211137040788209385e+00
-5.671582582429364194e-01
4.081410118411079035e-01
7.482091598517317532e-01
7.860520425728383387e-01
2.161672207786365707e+00
8.601582810035865445e-02
-1.296231308193197540e-01
-5.336783620601344147e-01
-1.312962646412182854e+00
-2.377555506281175735e+00
1.790566124586944863e+00
2.035780821038147614e+00
-1.290782541411439333e+00
-8.945457310776526727e-01
-5.828355186417418787e-01
-3.507437619811418217e-01
-1.416555441120014858e-01
2.155744894284098434e-01
-2.871826284646094088e-03
-2.615350118125548406e-01
-1.182224953387314814e+00
-2.265600569982237467e+00
2.576222676543847623e+00
7.838360207028660653e-01
-1.917379368537078133e+00
-8.789163750017161547e-01
-3.148105544638396536e-01
1.201804231838723147e-01
7.293676435971605532e-01
1.866028075972732125e+00
2.531843382127624276e-01
1.705417924175448574e-01
-2.277815954416414490e-01
-7.628896781482968903e-01
1.367967459449587198e+00
-7.642455562223907650e-01
-1.626484298297695030e+00
-6.498420455884043045e-01
-1.355095210760617064e-01
3.110088672833667411e-01
2.418290313928769919e+00
4.455522430074936868e-01
1.210606965914358679e-01
-6.904091730243574476e-01
-6.601207590223768795e-01
-1.492183492687665813e+00
-9.183564469363962868e-01
3.301039738276795976e+00
1.819718251237188028e-02
2.332911705980639239e-01
-1.282011594042050673e-01
-4.929873865857309356e-02
6.619164609291566803e-01
-7.211737762855517930e-01
-3.916176843832791521e-01
-6.563377126882502521e-01
-1.373747142732848259e+00
-1.854030489144011806e+00
1.789988769860283435e+00
4.385431722832782597e+00
-1.619511670027818928e+00
-9.619059465098545036e-01
-1.004778871608166035e+00
-6.687710042424709345e-01
-3.043662187246139461e-01
-4.403798870444705638e-01
-7.597329011280941069e-01
-4.356842277297490740e-01
-8.595587433662911225e-01
-1.778961268564633658e+00
3.801443291545163028e+00
3.167730241133471569e+00
-2.071576269205435583e+00
-1.074449465636828194e+00
-7.605017700089850008e-01
-7.024502725062279351e-01
-7.357194536363148574e-02
-1.543284640807210950e-01
-4.180616984386794077e-01
1.772079371143381876e-01
1.217579629813183129e+00
3.191637049289634542e-01
1.681538543925699347e+00
-7.483158908296400069e-03
-1.351109388007836420e+00
-1.192778859566467453e+00
-8.692437634600013174e-01
-4.668421804562697397e-01
1.354307796691594401e+00
-1.369883118999966509e+00
1.614489188103628570e-01
4.210975858893884448e-03
-7.884232234529847672e-01
-9.320679879682624014e-01
1.477582546534944863e-01
-1.558437360275505057e+00
-1.758414474351669143e-01
-2.061773511700904504e-01
-4.538318484466931091e-01
-1.066481161552963602e-01
5.424767040264030227e-01
-1.553171857978529857e+00
-3.554602435734116606e-02
-1.906601412078878510e-01
-8.212551478730916177e-01
-5.596890849160300885e-01
5.967242977066318232e-01
-1.189747430246621773e+00
-4.881591313384926467e-01
-7.448860263276856353e-01
-5.989375658764148902e-01
-7.944834324735328135e-02
1.151778570138818486e-01
-1.395115175461265622e+00
3.996687071136333924e-01
-1.725111516399952527e-01
-1.112815582152924421e+00
-8.379022819572484737e-01
4.850283392895568535e-01
-1.235654493563709933e+00
-2.963254739976525776e-01
1.760833535240247105e-01
-1.321973782155649868e-01
6.174630570385978429e-02
5.376616373894044232e-01
-1.605251130662266545e+00
-1.311554885569762019e-01
-4.689605178688585618e-01
-9.651678428215538785e-01
-8.855561250950559904e-01
1.812839980661096195e-01
-1.834895204862511342e+00
-9.717405133472714063e-01
-2.822042433309362996e-01
-6.989876930655895826e-02
1.282421920624879030e+00
4.307589139177961379e-01
-5.657496780776894996e-01
1.555299055578382550e+00
1.232268000230867244e+00
-1.230589850034380095e-01
4.856854104010046580e-01
1.571097862774393006e+00
-2.326200230326744278e-01
7.267001587907206961e-01
8.135938745461317456e-01
5.129672023758363730e-01
9.285731284751216341e-01
1.202526153461098701e+00
-8.763323544340381743e-02
9.651130928260529540e-01
8.637411627985479567e-01
-4.076085567496870454e-01
1.692759747298177853e-01
1.875733348565913561e+00
-9.330667463968028708e-01
-1.553521934749749756e-01
-6.139787143572523337e-02
1.907378500535392429e-01
2.754147555958809113e-01
1.752415001191463650e+00
-9.420922794244555032e-01
8.181978664560355385e-01
2.790813963408393938e-01
-1.317315361215272707e-01
4.903954561667232537e-01
2.147848216047612002e+00
-9.878402762585711816e-01
-3.826725406899610382e-01
6.916131959771334436e-01
8.882456701090236661e-01
1.521249425266510524e+00
1.091067110726764433e+00
-6.423165589588412105e-01
1.027449578215623216e+00
7.923771201784469698e-01
-8.853771038579795472e-02
4.574885530634587028e-01
2.135946476189698906e+00
-1.667371325954312811e+00
8.674162696332953226e-01
9.591579994995030889e-01
1.038674698717997114e+00
1.342378828419202863e+00
1.826606053743807134e+00
-1.419709695042754349e+00
-1.462155794950095386e-02
-2.715068281558794538e-01
-8.997744575166708447e-01
-4.444255998451249745e-01
8.491543524595446257e-01
-2.106046139339533330e+00
-7.548921772621427495e-01
-1.400119295345797765e-01
-2.850137457328399404e-01
3.305585430705221262e-01
1.148862351971436047e+00
-2.212983001102047265e+00
-4.174076744850658272e-01
5.137557772161131103e-02
-6.498935590704983944e-01
-7.629003950442164728e-02
2.116165907706436755e+00
-1.302426623256497384e+00
-4.109430716975765452e-01
-1.168411225559674721e-01
-4.516265822307049399e-02
-3.034269190234827884e-01
9.399376467916323863e-01
-1.133795848527445527e+00
-5.478515822081837794e-02
-7.446903586079721415e-02
-6.216377939298169952e-01
-3.000332848843577094e-01
1.855108338597841300e+00
-1.012120799038606522e+00
3.851801270066190219e-01
-7.377635598522200300e-02
-6.946819960326022780e-01
-2.550512533660205874e-03
8.909216381134270613e-01
-8.497813792896113938e-01
3.754097898177535253e-01
-2.947234278856506462e-01
-7.568184140925880987e-01
2.763800700190515158e-01
1.711134470436568078e+00
-2.155409486372718231e+00
-7.424179370102350628e-01
1.903071537794067958e-01
1.012581785542076562e-01
3.329963575222638639e-01
1.342698031754175236e+00
-2.103997403221022022e+00
4.543441365581469826e-01
-1.196974413476292048e-01
-3.293655518173824737e-01
-3.246730747960913099e-02
1.201807330682880703e+00
-2.694601412963927523e+00
6.754561477261140645e-01
1.667912312424312815e-01
-8.045998496018402779e-02
2.453936037974047413e-01
2.325905387295177928e-01
-2.484580181606091731e+00
3.083347943397209967e-01
3.092223624058354145e-02
-6.605760501458077805e-01
-8.342578938830603752e-01
1.071177864054127404e+00
-3.057504944148731418e+00
-7.558800082761234218e-02
4.774338450940002754e-01
9.754982898126006441e-03
1.374097759601677349e-01
1.382954172152627281e-01
-2.765732526623432719e+00
-3.702509110492908095e-01
-8.926930588842128811e-02
-1.023802667906501318e+00
-8.179412820971126985e-01
9.215299522069816396e-01
-3.166983492690766511e+00
-8.123605064260201736e-02
-1.753639141446520361e-02
-4.405803801492524374e-01
6.083965026291915379e-02
3.648704218258990578e-02
-2.285215915584883462e+00
1.747710630179232782e-01
-6.241626743218586099e-02
-6.370018080098750479e-01
-8.724633297050224945e-01
9.287855572545798966e-01
-2.508027796133353693e+00
3.850337926561594459e-01
1.079393438972604119e-01
-6.150410809989405314e-02
1.044099937003470369e-01
1.887643542879203218e-01
-8.070428717587958545e-01
2.920012614633792358e-01
4.388744857600007099e-01
4.676931239985130939e-01
9.098258131932371318e-02
6.418630558515433515e-01
-4.254240360140685850e-01
6.733673128490033077e-01
3.709780164059826579e-01
5.089549484923556744e-01
1.498535309901554979e-01
5.997000558887428667e-01
-6.739577925832179739e-01
1.065242591276682749e-01
-5.485217921977095928e-03
1.174398340691188564e-02
3.605387119684608233e-01
1.715520113644833700e+00
-4.857765470215186787e-01
6.516806144365437925e-01
2.943967573337120600e-02
-2.118948098690952020e-01
5.558900562357973474e-01
1.320234778628553540e+00
-5.115281769005006751e-01
-2.442407180796476313e-02
-4.852189600870759345e-01
-6.914385868219971032e-01
-5.787728997620055216e-01
1.681904794347688359e+00
-1.029491780775299015e-03
5.065381184271757764e-01
1.308816190372802390e+00
4.843444601660962801e-01
6.197066360666293461e-01
8.797318424007503079e-01
-2.683012838204347217e-01
5.976897207677233093e-01
-8.568681155929161464e-02
-3.396393183063055043e-01
-1.889343002206456679e-01
1.372254914725268948e+00
1.727101757884798860e-01
1.374557429124538155e+00
1.458001784026172087e+00
1.291272641205616800e+00
1.386507423835554365e+00
1.332401279761748381e+00
-2.191881322695369561e-01
9.954849644100147721e-01
6.399175789589925945e-01
3.350345595376075236e-01
2.768447544101667046e-01
7.649863650130536014e-03
-5.752609384750995147e-01
4.422327768177029550e-01
8.763418289220408219e-01
7.859587892364059414e-01
8.651455903953942927e-01
1.188074979140201215e+00
-3.175332120877764619e-01
7.065996785863299934e-01
8.316539721996650814e-01
-3.020652416127529438e-01
-3.602102572994101415e-01
1.399535956569561312e+00
1.562575029850860053e-02
7.503190163491404441e-01
1.193693605708272543e+00
5.016773943299828176e-01
9.051495261813903292e-01
1.310546870511564377e+00
-1.091207393142530124e+00
3.118850992715931914e-01
6.440610417712634428e-01
2.655768360213040524e-01
-1.200393334618831964e-01
1.737155215885621606e+00
-4.136623639732100316e-02
2.019923104176882256e-01
8.329806330377204082e-01
5.458111443468457447e-01
1.062443484632541235e+00
1.263921786874428133e+00
-7.249112715729463252e-01
7.890480620008836210e-01
7.125101003359914920e-01
4.318714103531614557e-01
2.801247288617476072e-01
7.895416608775918110e-01
-1.059060646330489019e+00
1.571519620748393242e+00
1.063059317429686068e+00
7.395769708333174153e-01
1.109797448099591133e+00
1.868106025945848181e+00
-2.608545711141102008e-01
8.112337642249875524e-02
5.552451555370945258e-01
-3.169608159726118313e-01
1.305083307563869588e-01
1.045511332156705997e+00
-1.237751232242476185e+00
-1.607687022864377931e-03
3.668351270730674796e-01
2.674940615674015199e-01
9.458739036703777137e-01
1.805785956963774641e+00
-9.456448601330642578e-01
1.344707498180652827e-01
3.558176979407987051e-01
1.571415116739116949e-02
1.902801698848401724e-01
1.366439829624129354e+00
-1.008600364184567333e+00
1.374832954496645054e-01
4.064866161184149118e-01
3.137015170299789490e-02
2.036734923800764541e-01
9.584848669384704589e-01
-4.444611677733785737e-01
6.174006676371770475e-01
5.854553971044319516e-01
6.056849994883508614e-01
3.726703061431049235e-01
1.685320095768510829e+00
-8.774690743786851543e-01
-1.433055702696491296e-01
1.452631769415510532e-01
1.595227078559263989e-01
7.170881666992774406e-01
1.247172109764292491e+00
3.484921371593458633e-02
3.734548856827479835e-01
7.256396569092911086e-01
5.159941799285231445e-01
7.746268691488222835e-02
5.721822541922607641e-01
-1.681176783712704959e+00
1.482817439359575794e-02
3.603423273827869866e-01
2.881517697979735781e-01
6.376433518566977376e-01
1.424740313187294216e+00
-5.692256735910652399e-01
7.875530908523379336e-01
9.332185047643767328e-01
9.013380681158493779e-01
4.902962624876666675e-01
1.128909356350218829e+00
-3.821796371347677690e-01
1.913491097230972438e+00
1.312173278810631061e+00
8.652741566269629425e-01
5.592364280149549893e-01
6.055099154376297754e-01
-7.779159986297667917e-01
1.052757112603238898e+00
9.054587046502410308e-01
6.824007106419484048e-01
4.030392978976685692e-01
1.976118523561684048e+00
-6.382110428849951944e-01
1.097901494838656955e+00
1.067111892073252299e+00
6.881730729984141259e-01
6.298407866188470150e-01
6.266985227161895322e-01
-1.120738009869812757e+00
4.623240861894732379e-01
7.644075539896755256e-01
3.934511162612743251e-01
-3.423704685390362157e-02
1.166509419203126896e+00
-1.758688609419434945e+00
8.913892827917198058e-01
9.385049863442176399e-01
1.006851639903771689e+00
1.068542577994310072e+00
4.831175510950925234e-01
9.171693705305591915e-02
9.060524309451122305e-01
1.082666515411226715e+00
5.767077673524492187e-01
2.358884950792719815e-01
2.516282383102157461e-01
-1.034015091354531402e+00
9.233030118618168469e-01
1.044581923813307611e+00
6.730202870856903941e-01
4.108055558911409832e-01
9.554965700508948334e-01
